digraph Tree {
node [shape=box] ;
0 [label="rating <= 99.5\nmse = 3.0421\nsamples = 5697\nvalue = 1.8642"] ;
1 [label="host <= 3.5\nmse = 3.3448\nsamples = 4206\nvalue = 2.1485"] ;
0 -> 1 [labeldistance=2.5, labelangle=45, headlabel="True"] ;
2 [label="price <= 216.3333\nmse = 3.0635\nsamples = 3635\nvalue = 1.9951"] ;
1 -> 2 ;
3 [label="rating <= 80.5\nmse = 3.7628\nsamples = 1927\nvalue = 2.3245"] ;
2 -> 3 ;
4 [label="mse = 2.2382\nsamples = 247\nvalue = 1.3852"] ;
3 -> 4 ;
5 [label="mse = 3.8382\nsamples = 1680\nvalue = 2.4626"] ;
3 -> 5 ;
6 [label="rating <= 83.5\nmse = 2.0141\nsamples = 1708\nvalue = 1.6235"] ;
2 -> 6 ;
7 [label="mse = 1.0276\nsamples = 170\nvalue = 1.0092"] ;
6 -> 7 ;
8 [label="mse = 2.0768\nsamples = 1538\nvalue = 1.6914"] ;
6 -> 8 ;
9 [label="price <= 263.5\nmse = 4.0325\nsamples = 571\nvalue = 3.1247"] ;
1 -> 9 ;
10 [label="price <= 156.1667\nmse = 4.3409\nsamples = 350\nvalue = 3.608"] ;
9 -> 10 ;
11 [label="mse = 4.576\nsamples = 138\nvalue = 4.1322"] ;
10 -> 11 ;
12 [label="mse = 3.8927\nsamples = 212\nvalue = 3.2668"] ;
10 -> 12 ;
13 [label="price <= 367.3333\nmse = 2.5883\nsamples = 221\nvalue = 2.3593"] ;
9 -> 13 ;
14 [label="mse = 3.1611\nsamples = 105\nvalue = 2.778"] ;
13 -> 14 ;
15 [label="mse = 1.7675\nsamples = 116\nvalue = 1.9803"] ;
13 -> 15 ;
16 [label="host <= 3.5\nmse = 1.3172\nsamples = 1491\nvalue = 1.0622"] ;
0 -> 16 [labeldistance=2.5, labelangle=-45, headlabel="False"] ;
17 [label="location <= -18.1241\nmse = 1.0777\nsamples = 1370\nvalue = 0.9821"] ;
16 -> 17 ;
18 [label="price <= 294.1667\nmse = 4.2715\nsamples = 7\nvalue = 3.0971"] ;
17 -> 18 ;
19 [label="mse = 2.5976\nsamples = 6\nvalue = 2.5133"] ;
18 -> 19 ;
20 [label="mse = 0.0\nsamples = 1\nvalue = 6.6"] ;
18 -> 20 ;
21 [label="price <= 658.6666\nmse = 1.0382\nsamples = 1363\nvalue = 0.9712"] ;
17 -> 21 ;
22 [label="mse = 1.088\nsamples = 1258\nvalue = 1.0009"] ;
21 -> 22 ;
23 [label="mse = 0.3045\nsamples = 105\nvalue = 0.6162"] ;
21 -> 23 ;
24 [label="price <= 350.8333\nmse = 3.1345\nsamples = 121\nvalue = 1.9685"] ;
16 -> 24 ;
25 [label="space <= 3.0345\nmse = 3.6525\nsamples = 87\nvalue = 2.3341"] ;
24 -> 25 ;
26 [label="mse = 3.4561\nsamples = 86\nvalue = 2.2817"] ;
25 -> 26 ;
27 [label="mse = 0.0\nsamples = 1\nvalue = 6.84"] ;
25 -> 27 ;
28 [label="location <= 15.3759\nmse = 0.592\nsamples = 34\nvalue = 1.0329"] ;
24 -> 28 ;
29 [label="mse = 0.6389\nsamples = 27\nvalue = 1.1711"] ;
28 -> 29 ;
30 [label="mse = 0.0534\nsamples = 7\nvalue = 0.5"] ;
28 -> 30 ;
}